digraph Tree {
node [shape=box] ;
0 [label="sex=male <= 0.5\nentropy = 0.934\nsamples = 984\nvalue = [640, 344]"] ;
1 [label="pclass=3rd <= 0.5\nentropy = 0.91\nsamples = 351\nvalue = [114, 237]"] ;
0 -> 1 [labeldistance=2.5, labelangle=45, headlabel="True"] ;
2 [label="pclass=2nd <= 0.5\nentropy = 0.461\nsamples = 195\nvalue = [19, 176]"] ;
1 -> 2 ;
3 [label="age <= 8.0\nentropy = 0.391\nsamples = 117\nvalue = [9, 108]"] ;
2 -> 3 ;
4 [label="entropy = 0.0\nsamples = 1\nvalue = [1, 0]"] ;
3 -> 4 ;
5 [label="age <= 24.5\nentropy = 0.362\nsamples = 116\nvalue = [8, 108]"] ;
3 -> 5 ;
6 [label="entropy = 0.0\nsamples = 23\nvalue = [0, 23]"] ;
5 -> 6 ;
7 [label="age <= 25.5\nentropy = 0.423\nsamples = 93\nvalue = [8, 85]"] ;
5 -> 7 ;
8 [label="entropy = 0.0\nsamples = 1\nvalue = [1, 0]"] ;
7 -> 8 ;
9 [label="age <= 31.097\nentropy = 0.388\nsamples = 92\nvalue = [7, 85]"] ;
7 -> 9 ;
10 [label="entropy = 0.0\nsamples = 9\nvalue = [0, 9]"] ;
9 -> 10 ;
11 [label="age <= 36.5\nentropy = 0.417\nsamples = 83\nvalue = [7, 76]"] ;
9 -> 11 ;
12 [label="entropy = 0.544\nsamples = 40\nvalue = [5, 35]"] ;
11 -> 12 ;
13 [label="entropy = 0.271\nsamples = 43\nvalue = [2, 41]"] ;
11 -> 13 ;
14 [label="age <= 55.0\nentropy = 0.552\nsamples = 78\nvalue = [10, 68]"] ;
2 -> 14 ;
15 [label="age <= 17.5\nentropy = 0.52\nsamples = 77\nvalue = [9, 68]"] ;
14 -> 15 ;
16 [label="entropy = 0.0\nsamples = 13\nvalue = [0, 13]"] ;
15 -> 16 ;
17 [label="age <= 44.5\nentropy = 0.586\nsamples = 64\nvalue = [9, 55]"] ;
15 -> 17 ;
18 [label="age <= 43.0\nentropy = 0.629\nsamples = 57\nvalue = [9, 48]"] ;
17 -> 18 ;
19 [label="age <= 39.0\nentropy = 0.592\nsamples = 56\nvalue = [8, 48]"] ;
18 -> 19 ;
20 [label="entropy = 0.627\nsamples = 51\nvalue = [8, 43]"] ;
19 -> 20 ;
21 [label="entropy = 0.0\nsamples = 5\nvalue = [0, 5]"] ;
19 -> 21 ;
22 [label="entropy = 0.0\nsamples = 1\nvalue = [1, 0]"] ;
18 -> 22 ;
23 [label="entropy = 0.0\nsamples = 7\nvalue = [0, 7]"] ;
17 -> 23 ;
24 [label="entropy = 0.0\nsamples = 1\nvalue = [1, 0]"] ;
14 -> 24 ;
25 [label="age <= 23.5\nentropy = 0.965\nsamples = 156\nvalue = [95, 61]"] ;
1 -> 25 ;
26 [label="age <= 7.0\nentropy = 0.985\nsamples = 28\nvalue = [12, 16]"] ;
25 -> 26 ;
27 [label="age <= 2.5\nentropy = 0.722\nsamples = 5\nvalue = [1, 4]"] ;
26 -> 27 ;
28 [label="age <= 1.083\nentropy = 1.0\nsamples = 2\nvalue = [1, 1]"] ;
27 -> 28 ;
29 [label="entropy = 0.0\nsamples = 1\nvalue = [0, 1]"] ;
28 -> 29 ;
30 [label="entropy = 0.0\nsamples = 1\nvalue = [1, 0]"] ;
28 -> 30 ;
31 [label="entropy = 0.0\nsamples = 3\nvalue = [0, 3]"] ;
27 -> 31 ;
32 [label="age <= 13.0\nentropy = 0.999\nsamples = 23\nvalue = [11, 12]"] ;
26 -> 32 ;
33 [label="entropy = 0.0\nsamples = 4\nvalue = [4, 0]"] ;
32 -> 33 ;
34 [label="age <= 15.5\nentropy = 0.949\nsamples = 19\nvalue = [7, 12]"] ;
32 -> 34 ;
35 [label="entropy = 0.0\nsamples = 1\nvalue = [0, 1]"] ;
34 -> 35 ;
36 [label="age <= 22.5\nentropy = 0.964\nsamples = 18\nvalue = [7, 11]"] ;
34 -> 36 ;
37 [label="age <= 20.0\nentropy = 0.977\nsamples = 17\nvalue = [7, 10]"] ;
36 -> 37 ;
38 [label="entropy = 0.918\nsamples = 12\nvalue = [4, 8]"] ;
37 -> 38 ;
39 [label="entropy = 0.971\nsamples = 5\nvalue = [3, 2]"] ;
37 -> 39 ;
40 [label="entropy = 0.0\nsamples = 1\nvalue = [0, 1]"] ;
36 -> 40 ;
41 [label="age <= 28.5\nentropy = 0.935\nsamples = 128\nvalue = [83, 45]"] ;
25 -> 41 ;
42 [label="entropy = 0.0\nsamples = 2\nvalue = [2, 0]"] ;
41 -> 42 ;
43 [label="age <= 36.5\nentropy = 0.94\nsamples = 126\nvalue = [81, 45]"] ;
41 -> 43 ;
44 [label="age <= 32.5\nentropy = 0.95\nsamples = 119\nvalue = [75, 44]"] ;
43 -> 44 ;
45 [label="age <= 30.597\nentropy = 0.927\nsamples = 114\nvalue = [75, 39]"] ;
44 -> 45 ;
46 [label="entropy = 0.918\nsamples = 3\nvalue = [1, 2]"] ;
45 -> 46 ;
47 [label="age <= 31.597\nentropy = 0.918\nsamples = 111\nvalue = [74, 37]"] ;
45 -> 47 ;
48 [label="entropy = 0.921\nsamples = 110\nvalue = [73, 37]"] ;
47 -> 48 ;
49 [label="entropy = 0.0\nsamples = 1\nvalue = [1, 0]"] ;
47 -> 49 ;
50 [label="entropy = 0.0\nsamples = 5\nvalue = [0, 5]"] ;
44 -> 50 ;
51 [label="age <= 44.0\nentropy = 0.592\nsamples = 7\nvalue = [6, 1]"] ;
43 -> 51 ;
52 [label="entropy = 0.0\nsamples = 4\nvalue = [4, 0]"] ;
51 -> 52 ;
53 [label="age <= 46.5\nentropy = 0.918\nsamples = 3\nvalue = [2, 1]"] ;
51 -> 53 ;
54 [label="entropy = 1.0\nsamples = 2\nvalue = [1, 1]"] ;
53 -> 54 ;
55 [label="entropy = 0.0\nsamples = 1\nvalue = [1, 0]"] ;
53 -> 55 ;
56 [label="age <= 13.5\nentropy = 0.655\nsamples = 633\nvalue = [526, 107]"] ;
0 -> 56 [labeldistance=2.5, labelangle=-45, headlabel="False"] ;
57 [label="pclass=3rd <= 0.5\nentropy = 0.773\nsamples = 22\nvalue = [5, 17]"] ;
56 -> 57 ;
58 [label="entropy = 0.0\nsamples = 13\nvalue = [0, 13]"] ;
57 -> 58 ;
59 [label="age <= 3.5\nentropy = 0.991\nsamples = 9\nvalue = [5, 4]"] ;
57 -> 59 ;
60 [label="age <= 0.583\nentropy = 0.811\nsamples = 4\nvalue = [1, 3]"] ;
59 -> 60 ;
61 [label="entropy = 0.0\nsamples = 1\nvalue = [1, 0]"] ;
60 -> 61 ;
62 [label="entropy = 0.0\nsamples = 3\nvalue = [0, 3]"] ;
60 -> 62 ;
63 [label="age <= 10.0\nentropy = 0.722\nsamples = 5\nvalue = [4, 1]"] ;
59 -> 63 ;
64 [label="age <= 6.5\nentropy = 0.918\nsamples = 3\nvalue = [2, 1]"] ;
63 -> 64 ;
65 [label="entropy = 0.0\nsamples = 1\nvalue = [1, 0]"] ;
64 -> 65 ;
66 [label="entropy = 1.0\nsamples = 2\nvalue = [1, 1]"] ;
64 -> 66 ;
67 [label="entropy = 0.0\nsamples = 2\nvalue = [2, 0]"] ;
63 -> 67 ;
68 [label="pclass=1st <= 0.5\nentropy = 0.603\nsamples = 611\nvalue = [521, 90]"] ;
56 -> 68 ;
69 [label="age <= 34.5\nentropy = 0.472\nsamples = 475\nvalue = [427, 48]"] ;
68 -> 69 ;
70 [label="age <= 18.5\nentropy = 0.5\nsamples = 427\nvalue = [380, 47]"] ;
69 -> 70 ;
71 [label="entropy = 0.0\nsamples = 14\nvalue = [14, 0]"] ;
70 -> 71 ;
72 [label="pclass=2nd <= 0.5\nentropy = 0.511\nsamples = 413\nvalue = [366, 47]"] ;
70 -> 72 ;
73 [label="age <= 32.5\nentropy = 0.53\nsamples = 324\nvalue = [285, 39]"] ;
72 -> 73 ;
74 [label="age <= 21.5\nentropy = 0.535\nsamples = 320\nvalue = [281, 39]"] ;
73 -> 74 ;
75 [label="entropy = 0.75\nsamples = 14\nvalue = [11, 3]"] ;
74 -> 75 ;
76 [label="entropy = 0.523\nsamples = 306\nvalue = [270, 36]"] ;
74 -> 76 ;
77 [label="entropy = 0.0\nsamples = 4\nvalue = [4, 0]"] ;
73 -> 77 ;
78 [label="age <= 21.5\nentropy = 0.436\nsamples = 89\nvalue = [81, 8]"] ;
72 -> 78 ;
79 [label="entropy = 0.0\nsamples = 7\nvalue = [7, 0]"] ;
78 -> 79 ;
80 [label="age <= 24.5\nentropy = 0.461\nsamples = 82\nvalue = [74, 8]"] ;
78 -> 80 ;
81 [label="entropy = 0.722\nsamples = 10\nvalue = [8, 2]"] ;
80 -> 81 ;
82 [label="entropy = 0.414\nsamples = 72\nvalue = [66, 6]"] ;
80 -> 82 ;
83 [label="age <= 44.5\nentropy = 0.146\nsamples = 48\nvalue = [47, 1]"] ;
69 -> 83 ;
84 [label="entropy = 0.0\nsamples = 30\nvalue = [30, 0]"] ;
83 -> 84 ;
85 [label="age <= 45.5\nentropy = 0.31\nsamples = 18\nvalue = [17, 1]"] ;
83 -> 85 ;
86 [label="pclass=3rd <= 0.5\nentropy = 0.811\nsamples = 4\nvalue = [3, 1]"] ;
85 -> 86 ;
87 [label="entropy = 0.0\nsamples = 2\nvalue = [2, 0]"] ;
86 -> 87 ;
88 [label="entropy = 1.0\nsamples = 2\nvalue = [1, 1]"] ;
86 -> 88 ;
89 [label="entropy = 0.0\nsamples = 14\nvalue = [14, 0]"] ;
85 -> 89 ;
90 [label="age <= 56.5\nentropy = 0.892\nsamples = 136\nvalue = [94, 42]"] ;
68 -> 90 ;
91 [label="age <= 28.5\nentropy = 0.924\nsamples = 124\nvalue = [82, 42]"] ;
90 -> 91 ;
92 [label="age <= 20.0\nentropy = 1.0\nsamples = 18\nvalue = [9, 9]"] ;
91 -> 92 ;
93 [label="entropy = 0.0\nsamples = 2\nvalue = [2, 0]"] ;
92 -> 93 ;
94 [label="age <= 22.5\nentropy = 0.989\nsamples = 16\nvalue = [7, 9]"] ;
92 -> 94 ;
95 [label="age <= 21.5\nentropy = 0.918\nsamples = 3\nvalue = [2, 1]"] ;
94 -> 95 ;
96 [label="entropy = 1.0\nsamples = 2\nvalue = [1, 1]"] ;
95 -> 96 ;
97 [label="entropy = 0.0\nsamples = 1\nvalue = [1, 0]"] ;
95 -> 97 ;
98 [label="age <= 23.5\nentropy = 0.961\nsamples = 13\nvalue = [5, 8]"] ;
94 -> 98 ;
99 [label="entropy = 0.0\nsamples = 1\nvalue = [0, 1]"] ;
98 -> 99 ;
100 [label="entropy = 0.98\nsamples = 12\nvalue = [5, 7]"] ;
98 -> 100 ;
101 [label="age <= 30.5\nentropy = 0.895\nsamples = 106\nvalue = [73, 33]"] ;
91 -> 101 ;
102 [label="entropy = 0.0\nsamples = 5\nvalue = [5, 0]"] ;
101 -> 102 ;
103 [label="age <= 47.5\nentropy = 0.912\nsamples = 101\nvalue = [68, 33]"] ;
101 -> 103 ;
104 [label="age <= 38.5\nentropy = 0.881\nsamples = 80\nvalue = [56, 24]"] ;
103 -> 104 ;
105 [label="entropy = 0.94\nsamples = 56\nvalue = [36, 20]"] ;
104 -> 105 ;
106 [label="entropy = 0.65\nsamples = 24\nvalue = [20, 4]"] ;
104 -> 106 ;
107 [label="age <= 49.5\nentropy = 0.985\nsamples = 21\nvalue = [12, 9]"] ;
103 -> 107 ;
108 [label="entropy = 0.918\nsamples = 9\nvalue = [3, 6]"] ;
107 -> 108 ;
109 [label="entropy = 0.811\nsamples = 12\nvalue = [9, 3]"] ;
107 -> 109 ;
110 [label="entropy = 0.0\nsamples = 12\nvalue = [12, 0]"] ;
90 -> 110 ;
}